Language model created by QuickLM on Wed May 17 01:14:25 EDT 2023
Copyright (c) 1996-2010 Carnegie Mellon University and Alexander I. Rudnicky

The model is in standard ARPA format, designed by Doug Paul while he was at MITRE.

The code that was used to produce this language model is available in Open Source.
Please visit http://www.speech.cs.cmu.edu/tools/ for more information

The (fixed) discount mass is 0.5. The backoffs are computed using the ratio method.
This model based on a corpus of 1 sentences and 3 words

\data\
ngram 1=3
ngram 2=3
ngram 3=2

\1-grams:
-0.9031 </s> -0.3010
-0.9031 <s> -0.1761
-0.6021 GOO -0.0969

\2-grams:
-0.3010 <s> GOO -0.1761
-0.6021 GOO </s> -0.3010
-0.6021 GOO GOO -0.1761

\3-grams:
-0.3010 <s> GOO GOO
-0.3010 GOO GOO </s>

\end\